-0.15520443,0.20526788,0.039318692,-0.4382663,0.23241496,-0.10928845,0.47621584,-0.13264444,-0.09770075,0.100877024,-0.12279169,-0.15597603,0.0870617,0.039303772,-0.15092571,-0.30899802,0.24394952,-0.14215355,0.100517616,0.06664122,-0.25963694,-0.27020785,-0.30706793,-0.16898248,0.16584507,-0.3993987,0.2000879,-0.22935206,-0.0796808,0.029248772,-0.19572896,-0.1544475,-0.16816074,0.27582672,-0.23292479,-0.20708354,0.3750576,0.19823188,0.4503744,-0.50501436,0.37954575,0.07709437,0.22068517,-0.3730156,0.3235955,-0.26388845,-0.23532619,-0.28696632,0.37424716,-0.13992465,-0.22961636,-0.23032118,-0.15706597,-0.15286727,0.025596585,0.31843168,0.30325705,-0.1650326,0.2538059,0.39232033,-0.11426132,-0.34448442,0.3963289,0.04619735,0.20208262,-0.015759135,-0.15411289,-0.15831359,-0.1971391,-0.25945097,0.31662723,0.11227813,-0.08426503,0.07426388,-0.19396077,-0.19136426,-0.43307388,0.051060937,0.08837719,0.32692802,-0.25069547,0.056134764,0.32754168,-0.55644095,0.27324662,-0.24902733,0.11919442,0.0790944,0.34175766,-0.015241777,-0.46849653,-0.43356726,0.43304074,-0.34827384,-0.30974084,0.30436006,-0.027789459,-0.0017330453,-0.37756437,-0.14085557,0.30152902,0.43589687,-0.22434944,0.16153768,-0.04096244,0.016931476,-0.17491794,0.019453198,0.055401396,0.35431355,-0.5116012,-0.17888789,-0.53627515,-0.25817168,-0.3811897,-0.19121324,-0.03777544,0.01870658,-0.2214759,0.32200378,0.2072025,-0.4195402,0.07964951,0.19447616,0.10014058,-0.0895891,-0.20210145,0.2553978,-0.08374936,-0.03855264,0.14701688,0.20812048,-0.36436516,0.12059469,-0.08938694,-0.15141648,0.17900342,0.23324852,-0.001857898,-0.063009106,-0.11638,0.06193556,-0.232477,0.33339047,-0.50131035,-0.14105095,-0.3465581,0.41573912,0.02203373,0.23285036,-0.11014907,0.084912926,-0.3026947,-0.23849912,0.28450567,-0.6753483,-0.1568567,0.18200523,0.08093653,-0.05136804,-0.19969432,-0.16987783,-0.08894651,0.22991093,-0.00541125,-0.13661262,-0.08779764,0.47360164,0.14372478,-0.30404902,-0.21344152,0.041591704,-0.21112677,0.15821879,0.22834499,0.10128513,-0.22865437,0.45728964,0.2974108,-0.16387492,-0.1359306,0.06331664,-0.13364813,-0.09294213,-0.22531529,0.3787868,-0.31632388,-0.36168903,-0.0139732985,0.20814191,-0.23662724,0.091519706,-0.0332658,0.27073288,0.366094,0.026841095,-0.045351256,-0.05759443,-0.19275197,0.28736466,-0.09579559,0.040300325,-0.1363374,0.18272872,-0.0965084,0.17188151,0.030114664,-0.16835155,0.08160763,-0.2647444,-0.020914145,-0.054480445,0.20997755,-0.036479186,0.29120922,-0.22982414,-0.12800819,-0.2956973,-0.07310247,0.33681926,0.22588725,-0.09743645,0.016990196,-0.008260532,0.007050294,0.2599027,-0.6095869,-0.21947621,0.39933226,0.1670042,-0.030326743,-0.514432,0.22635129,-0.01843494,-0.03700062,0.2252844,0.1663831,0.18821515,-0.32913515,-0.33297902,-0.20683643,-0.33653498,0.0030821438,0.07396288,-0.24106488,0.16084097,-0.120769784,0.17826484,0.13545823,-0.18046917,0.29904622,-0.22111326,0.15747358,-0.37166926,0.3033047,0.25706553,-0.32946113,-0.42972335,-0.21720095,-0.016627513,-0.10009067,0.19973792,-0.0158283,0.003940098,0.30987915,-0.02521612,-0.05083,-0.1610447,-0.23898736,0.05798698,0.05946298,-0.00461398,0.18390091,-0.40838796,-0.13885489,-0.019247392,-0.10216362,0.0518182,0.12781878,-0.33184683,-0.15797117,-0.21199316,-0.054752875,0.12209718,0.12530175,-0.070048414,0.14041087,0.24329586,0.15163176,-0.20000593,-0.28086355,0.02676997,0.31349137,0.004620542,0.18552566,-0.15916236,-0.2382583,0.33802485,-0.07844253,0.0039014714,-0.16292128,-0.07895601,0.027150212,-0.1038015,-0.07082661,0.18610972,-0.22679742,0.28234375,0.2506977,-0.012714042,-0.043912437,-0.14147793,-0.34740862,-0.0034308312,-0.07594973,-0.4398344,0.020929324,-0.08683134,0.013120286,-0.403469,0.035587486,-0.07044145,-0.048823826,0.36853218,0.13679738,-0.12148838,-0.40948254,-0.03965277,0.23227549,0.10177939,0.39200956,-0.21384604,0.20294909,0.241767,0.10867989,-0.024309745,0.15579246,0.087761395,-0.30366325,-0.11880883,0.18222821,0.23289105,-0.07004491,-0.05549002,-0.40778732,0.037279323,-0.35556394,-0.04829001,0.02437174,0.1801314,0.1858643,0.031483863,0.05103162,-0.06912815,0.1273411,-0.15614772,-0.010721872,0.21316573,-0.065861456,-0.019913787,0.25918415,-0.25212282,-0.28708613,-0.2005284,-0.37135342,-0.29565853,-0.25720435,-0.35155368,-0.03508488,-0.05695014,0.051997177,0.23138691,0.3723824,-0.29333276,0.11382201,0.10218624,-0.14954023,-0.33580327,-0.2565466,0.09580636,0.11960174,0.4364314,-0.058540538,-0.1022871,-0.26025254,-0.06449655,0.2735453,-0.19472115,-0.049023163,-0.34028506,0.28613958,-0.14812261,0.17950284,0.1575821,-0.21724823,-0.049719777,0.14287993,-0.09859492,0.12148813,0.17087977,-0.001608534,0.28447485,-0.18100417,-0.1557919,-0.14809653,-0.16959041,-0.14829852,0.05393583,-0.017797679,0.059484065,0.18091322,-0.16264682,0.04871445,-0.157265,-0.20723157,0.44456223,0.08754981,0.29225236,-0.120724045,0.031739973,0.22123893,-0.09515466,0.25362805,0.14766464,-0.44303548,-0.0111378115,0.031944886,-0.11671456,-0.18457255,0.26018444,-0.12551324,-0.10635709,-0.0022686406,0.21409981,0.0041782404,0.15930231,-0.12679695,-0.023478765,0.032440238,-0.2827786,0.25872082,-0.21693142,0.10142536,0.08028499,0.124379836,-0.14917023,0.08705882,-0.052681785,-0.09240186,-0.26013845,0.032418225,0.21475877,-0.07645071,0.08753746,0.104088776,-0.050139267,0.21244846,-0.18658507,-0.34807158,-0.33983478,-0.12882932,0.20009573,0.38377374,0.25032172,-0.4345111,0.09217537,-0.087925166,-0.03294224,-0.00067369634,-0.29431716,0.2762996,0.2659144,0.37972194,0.14188747,-0.040381443,-0.25976658,0.19386613,-0.32920438,-0.059032585,0.23014827,0.13633989,0.21159926,0.3447292,-0.26364595,-0.050633337,0.05716194,0.056934476,-0.039639764,0.13212898,0.015630815,-0.077768,0.15999345,-0.19149168,0.15770388,0.0049914797,-0.22694863,0.4246756,0.22311719,-0.2323091,0.14334194,0.13045794,0.018831814,0.064211376,-0.054199908,0.109092176,-0.023618804,0.029788837,0.12659906,0.12785016,0.14390117,-0.023405122,0.17127022,0.19380865,-0.11982727,0.056037743,0.09353604,0.16282645,-0.111590326,0.43752658,-0.35903066,0.059001423,-0.07543163,0.18258053,0.09982749,0.11247146,-0.42185935,-0.11959652,-0.15293114,-0.04415316,-0.1750795,0.08864845,-0.2144509,0.11132434,0.21968636,0.22560856,0.049752057,-0.30388737,0.34091192,0.29132432,-0.18230523,-0.39863238,0.4062224,0.0978416,-0.12840347,-0.37940818,0.04199573,0.11330042,-0.113661505,0.26514363,0.03453241,-0.25579253,0.04429538,-0.2412349,0.055539608,0.014695781,0.03299207,0.027130002,-0.08750377,0.22440338,0.041614257,-0.07540269,-0.058989678,-0.05929233,0.20402744,-0.17059559,-0.044523746,0.11632709,0.08547325,0.16918887,0.052613933,-0.31194854,-0.21336882,-0.17269693,0.10934965,-0.28044686,-0.20111251,0.0622191,-0.28096136,-0.0779334,0.4103454,0.015215168,0.107979126,-0.041659918,-0.28470716,0.08687749,-0.17522526,0.24545968,-0.21079852,0.21361224,0.10637968,-0.2974396,0.15950339,-0.114590205,-0.08888328,-0.18535271,-0.0061022635,0.16490093,-0.14486063,0.12084261,0.08600326,-0.093559176,0.22197706,0.087875806,0.26072606,-0.060884606,0.2066548,-0.00980611,0.08329504,0.18027017,-0.0019547266,-0.29549995,-0.063611135,-0.24932651,0.21835092,0.23320024,0.08583527,0.08712304,0.14631896,-0.31528857,0.3951183,0.11636029,-0.029331723,-0.20088582,0.021008179,-0.030406782,0.16750038,-0.061434343,-0.036224507,0.33826792,0.024058927,-0.03206575,-0.16415025,0.10590598,-0.066143006,-0.32688248,-0.030928478,-0.00589871,-0.07368606,-0.057378113,-0.14444381,-0.24771804,-0.09000958,0.008192335,0.051807508,0.13439365,-0.06776251,-0.020342387,0.052473743,0.0060146763,-0.09532378,0.021280838,0.35260582,0.26258004,-0.14996633,0.09590977,-0.17520134,0.010398017,0.20182663,-0.020870186,-0.21610798,-0.14197135,0.21096909,-0.15615028,-0.18454276,0.09154888,-0.1785499,-0.07396777,-0.11575107,0.05748397,0.1336456,-0.30200583,-0.12154745,-0.10144471,0.31827253,-0.20673655,0.02401006,0.05659088,0.4227437,0.06134157,-0.19996251,0.3937265,0.060622778,0.06397364,0.24477324,-0.2505787,0.048962265,-0.096818455,0.2876195,-0.119650185,0.031534,-0.102760844,0.1634544,-0.12641747,-0.017013108,-0.11157742,0.11284456,-0.10598318,0.15523463,0.05309367,-0.23901328,0.088349774,-0.18535574,0.009983782,0.06336523,0.011224637,-0.06302065,0.11125122,0.10681706,-0.35907358,-0.058811493,-0.15077028,-0.0056353905,0.1286834,-0.013543114,0.02092776,0.004892378,0.013799949,-0.026535384,-0.19409688,0.27048603,-0.32874158,0.03972359,-0.11675597,0.111345164,-0.13882777,-0.07165122,0.03336821,0.20465636,-0.13151711,-0.15015048,-0.026107186,0.10103909,-0.05395384,-0.034345128,-0.18035862,-0.055703253,0.12799093,-0.20422162,0.062450483,0.07105571,0.19983684,-0.04654842,-0.29733056,0.11158805,-0.048388403,0.07406695,0.23998332,-0.20321676,0.08406769,-0.005427342,0.15414195,-0.043791413,-0.29926425,0.19549741,-0.24452834,0.063081935,0.029968876,-0.1459294,-0.034686968,-0.12486747,-0.0687359,0.36373517,-0.05195166,-0.015735678,-0.10683091,0.08162471,-0.18694602,-0.13007234,0.17870487,0.009249963,0.098675855,0.06491214,0.16145092,0.123955935,0.11309506,0.23189655,0.30614176,0.101675816,0.1118348,-0.15931283,0.20219116,-0.029575529,-0.10640541,-0.09151109,0.18244156,-0.3886343,0.10415869,-0.063002825,-0.21863091,-0.27363712,0.012067147,0.16955382,0.34198162,0.077261336,-0.19120856,-0.3210623,0.0016258268,0.20671138,-0.04360381,0.09623481,0.07202906,-0.018024428,-0.11551001,-0.11960088,-0.26988974,-0.27064806,0.08312912,0.23895502,0.106302805,0.059317462,-0.22419296,0.2747889,-0.36145273,-0.061615374,-0.078646906,-0.28725627,0.2636482,-0.1121838,0.0023947302,0.014558351,-0.12247062,-0.044008665,-0.078103475,0.16154993,0.09152997,-0.17191607,0.1609351,0.21841787,0.13091862,-0.045282893,-0.17895266,0.08544217,0.1643804,0.12992078,-0.15325649,0.0018542279,-0.21824802,-0.15445802,-0.030823555,0.20182009,-0.22001497,0.049731765,-0.24642262,0.11302106,0.0206371,-0.10781264,0.03776218,0.008021652,-0.069799505,-0.16885465,0.09353726,0.08846622,0.18065928,-0.041597474,-0.050835896,-0.28484708,0.05936183,0.19107915,0.06150261,0.379756,-0.3166563,-0.14190017,0.10732528,0.19825539,-0.06509288,0.010713205,-0.20779866,0.2033192,0.1096864,0.060560364,-0.11542163,-0.05316496,-0.022638092,0.03666406,-0.08809186,-0.06293953,0.022383606,0.06182104,-0.102384195,-0.26501855,0.113657914,-0.08626626,0.33508876,-0.11929538,0.022872726,0.043388423,0.07398745,-0.08931656,-0.1646315,-0.098946385,0.46236855,0.14544412,0.1298421,-0.060767777,0.05460017,0.00043395563,0.19955973,-0.26607507,0.18865731,0.11273229,
0.2005815,-0.23155689,0.076108456,0.485685,0.19335243,0.32504714,0.5730305,0.3104305,-0.09744612,0.32769004,0.0653079,-0.46302167,0.2190491,-0.014626294,-0.23611985,0.21718614,0.47013155,0.37549347,-0.32072783,-0.07297285,0.33530846,0.16649862,-0.5318808,0.07544904,0.4528389,0.026464963,0.39073464,-0.109916225,0.009129356,-0.1376381,-0.39893368,0.37569186,0.21131793,-0.30397758,0.010940754,0.18574657,-0.0763019,-0.06807433,0.22613883,-0.23494768,0.06856331,0.30468974,0.20810993,0.29236934,0.4010784,-0.052399814,-0.18380418,-0.7155466,0.32518756,-0.11923405,0.13345334,0.39392796,0.4045353,-0.22930986,-0.1584067,-0.14560543,-0.06498114,-0.03864938,0.262741,-0.19833384,0.17643766,0.33101466,0.2057157,-0.50383884,0.06462111,-0.34238493,-0.20854871,-0.18292356,0.09867598,0.05789318,-0.19631608,-0.030418418,0.3051117,0.24977207,0.2613958,-0.26687855,-0.20495237,-0.25502473,-0.4029875,0.31712997,0.22934191,0.33040833,-0.30654696,0.40762365,0.25874898,0.22380367,-0.00096117606,0.20004399,0.4393562,0.23723406,-0.29565158,-0.17994358,-0.35017183,0.22012013,-0.06355938,0.405523,0.31676042,0.23909558,0.2466998,0.27662718,0.12114456,0.2196196,-0.47442025,0.12077435,-0.1865763,-0.0633603,0.31807184,0.16004865,0.33926827,-0.12659968,-0.39055508,-0.30531916,0.17456321,0.24186365,-0.28889534,0.5047486,-0.25334784,0.33110118,-0.17352918,0.33885932,-0.28069288,0.31050095,-0.23903169,0.19423473,0.7439037,-0.41125047,0.09211466,0.44904447,-0.12261861,0.19852927,-0.1633112,-0.4667109,0.097871736,0.20157921,0.20266819,0.110869326,-0.49000943,0.11844185,0.10512201,0.25909013,0.15380016,0.08474897,0.29062897,-0.58386856,-0.08965346,-0.03412872,-0.3234604,-0.24514405,0.4160219,-0.21782997,-0.16757692,0.12959394,-0.0021591927,-0.13850066,-0.29424572,0.09189736,-0.34620795,0.5158577,0.20393088,-0.4338375,-0.11948366,0.43571845,-0.10041952,0.62735516,0.36814043,-0.049667776,-0.48413575,0.22306557,0.07109233,0.123638034,-0.06279523,-0.21064003,0.14810884,0.46315408,-0.0032399662,0.15423077,0.3050499,0.2694897,0.072089225,0.21554087,0.04664949,-0.041030303,0.01935799,0.42825723,-0.1726561,0.41914397,0.2994694,-0.37072566,0.3854724,0.35805032,0.108512096,-0.015288686,-0.1012366,-0.14728937,0.005520431,-0.39790744,0.18731062,-0.33456254,0.17464826,-0.33893332,0.01840625,0.0047301096,0.26892862,0.35220593,-0.24955277,0.21528201,-0.06558685,0.31178278,0.15225358,0.12426423,0.011016968,-0.14920451,-0.18613493,0.36266205,0.30515447,0.34248027,0.45878375,0.43373784,-0.1509156,0.19419172,0.23475179,-0.18222643,0.42436782,0.24522775,-0.21939865,0.22174285,0.21266523,0.289452,0.013925599,0.17435873,0.16653758,0.15398149,-0.3417521,0.20372303,0.34213233,0.22731328,0.33492503,-0.06626237,0.24057128,0.1875519,-0.13137682,0.3944948,0.31988445,0.013524809,0.32416874,0.39081872,0.29175952,0.1452746,-0.21956262,0.0871004,0.4793748,0.10208371,0.14468434,0.002890082,-0.27434102,0.41258177,0.22791632,-0.12115831,0.25575802,0.20137027,0.21260652,0.24224764,0.22602299,-0.5362445,0.29100072,0.041334685,0.21643303,0.008830466,-0.3066563,0.19447844,0.10380335,0.020607052,0.31284097,-0.06355961,-0.012758263,0.528268,0.3249585,0.034951396,0.15886246,0.19219092,0.24255332,-0.37831542,0.36349887,0.088512704,-0.34436005,0.31444857,0.16622895,-0.18716194,-0.29261088,-0.005049548,0.31279436,0.44097593,-0.5886753,-0.063256636,0.34002048,-0.102667905,0.5059355,-0.09384455,-0.17217948,-0.2781889,-0.36096433,-0.0066455603,0.3285319,-0.058568455,-0.20051678,0.28914264,0.17510633,-0.1513127,0.46847168,0.11443507,-0.24067135,-0.060988683,-0.16131815,0.032080438,0.31695306,-0.3101962,0.24702093,-0.55209684,0.061578855,-0.41977647,0.23086402,-0.020887958,0.0709898,0.20064007,-0.22130911,0.4176922,-0.29846126,0.32105458,-0.020185621,0.3680995,0.4532511,-0.020232473,0.4002052,-0.14111008,-0.20271447,-0.3381453,-0.24565029,-0.39400285,0.29330513,-0.08112919,-0.121857725,0.008781477,0.1506534,-0.17967452,0.38131344,-0.049549744,-0.22202168,-0.15038368,-0.50642484,0.14214863,0.33709115,0.0370768,0.021140546,0.20416522,0.28553477,-0.040397305,0.12492796,0.2257122,0.019376345,0.18515532,0.07445851,0.28654143,0.19388042,0.3034146,0.327525,0.2947191,0.3101979,-0.17381884,0.27877268,0.30557278,-0.21587804,0.20060094,0.14819849,-0.25377676,-0.02293825,0.31410572,0.20617236,-0.059173677,0.26404274,-0.10075267,0.19058938,0.12274226,0.3604384,-0.27913693,0.07971946,-0.3497918,0.14763853,-0.18561159,0.08397638,-0.2783711,-0.07833749,0.2808282,0.23255111,-0.31300637,0.12982781,-0.04359155,0.09207562,-0.2633728,-0.12365612,0.3432975,0.035962883,0.23807034,0.2486405,0.27962002,0.06838678,-0.16352265,0.121262416,-0.4438137,-0.11975375,0.33729762,0.039720643,0.34897876,-0.010976484,0.27217287,-0.23265326,0.26267546,-0.15055357,0.3219621,0.20452444,0.08064434,-0.32968715,0.3606264,-0.053458594,-0.2398165,0.52067786,0.0016092687,0.29697892,0.47095916,-0.37460613,0.26059148,0.37167013,0.02902376,0.1625355,0.0974833,-0.15578201,0.16685224,0.16363272,0.12347021,0.3716291,0.2382441,0.08658605,0.4026292,0.1779251,-0.51413983,-0.044107173,0.19528142,-0.1549959,-0.07639119,0.2258842,0.21546848,-0.17247981,-0.015563157,-0.24045354,0.24360517,-0.18558592,0.47110042,0.09480866,0.45882452,-0.18009578,0.033655502,-0.14528689,0.3572148,0.07476742,0.36056483,0.20155531,0.18376887,-0.05536636,0.18936789,0.26727197,0.22784384,-0.27969322,-0.27769348,-0.1366489,0.272775,0.16026507,-0.0041361996,0.3563452,-0.04132656,0.051121976,-0.2078176,0.4164008,-0.029939726,0.60100794,-0.53811175,0.36757937,-0.33454496,-0.32097182,-0.17793635,0.22423413,0.021081198,0.43489033,-0.2738914,0.22008064,-0.39483768,0.47515184,-0.22518021,0.2992969,0.14886416,0.5083089,-0.08773069,0.45759502,0.43752524,0.24318367,-0.06658486,0.114415765,-0.5009251,-0.06343383,-0.19910319,0.29611745,-0.392616,-0.08528993,0.4771467,0.08912662,-0.07800231,0.06754805,0.08861235,-0.2165884,0.25397983,-0.40320852,-0.19330256,0.19218493,0.5237493,0.24770696,0.36842376,0.33029053,0.017556448,-0.15485208,0.033722714,0.32118097,0.40304396,-0.06467341,0.33775297,0.32870287,0.25392482,-0.081469044,-0.1709499,0.1577763,-0.016966632,0.14473593,-0.17129795,-0.14937025,0.183301,-0.15713075,0.22129394,-0.18565404,0.29566327,0.37989312,-0.02612922,-0.060620196,0.31744742,-0.03361348,0.19614044,-0.1502644,0.3200642,-0.14337015,0.06387571,0.09249463,-0.13441433,-0.14956799,0.11087823,-0.41750675,-0.0870075,0.09280128,0.3250524,-0.15800859,0.4794889,-0.006806325,0.4699178,0.11426122,0.47603697,0.20314744,-0.06923822,0.32600725,-0.0077569345,0.1108218,-0.28975028,-0.020906696,0.018358713,0.43035752,-0.111480296,-0.23619439,-0.45107573,0.030163769,-0.11519234,0.28319445,0.2529469,-0.26232105,0.06671917,-0.19865279,-0.23962915,0.5846861,-0.059221916,0.14050889,-0.0309592,0.45085916,-0.13839132,0.19050176,-0.081266455,-0.108412616,-0.012831263,-0.22494511,-0.010579058,0.0886049,0.12886956,0.04607743,0.740674,0.4838637,0.3080448,0.16171414,-0.0626363,0.5032767,-0.27401245,-0.011889186,0.333831,-0.056903888,0.13349842,0.41659024,0.004006235,0.052834015,-0.28175172,0.20490648,0.16617574,-0.5538035,-0.044022523,0.35267663,0.15601863,0.31142896,-0.07771287,-0.41105792,-0.08196988,0.5665077,-0.36206213,0.03622152,0.31706208,-0.21873075,-0.054368492,-0.07236404,-0.0035748575,-0.18194215,0.3280471,-0.4672679,0.5242637,0.14447175,0.045639843,0.35384622,0.036036447,0.23332368,0.29876637,0.02478327,0.3914039,-0.10259346,-0.03647684,0.06987514,0.61402196,0.2969343,-0.16854282,0.28791043,0.16407757,0.3598587,-0.24196024,0.32614186,-0.14726461,0.40520215,-0.19688536,-0.02700359,0.2033886,-0.10889258,-0.097816326,0.46731287,-0.4587506,0.37349755,0.04704891,0.094308004,-8.315526e-05,0.3068993,0.16756423,0.33598977,0.017959092,0.22396591,-0.2941243,0.4784961,0.17644636,0.22370136,0.06856188,0.44934633,-0.37094334,0.38546458,-0.32456157,-0.24279156,-0.2652448,0.08025845,0.48049018,0.14596851,0.3584668,0.30219677,-0.038314085,0.3523591,0.21356091,-0.06139468,0.09946725,-0.046883807,0.17599976,0.36022678,0.2471773,-0.1415412,0.37425056,-0.3233889,-0.029811654,-0.36674404,0.44375384,0.25646314,0.25346017,0.13869455,-0.22265331,0.11706258,-0.26687253,0.17674562,0.03888408,0.14630993,-0.36355504,0.3770129,0.039745353,0.18278253,-0.031870335,0.51845247,-0.34262925,-0.13526952,-0.43188602,0.23148885,0.19430915,0.027462292,-0.16171625,0.051433943,-0.681571,0.20012946,-0.20263976,0.18557967,-0.12253875,0.4034331,-0.34126672,0.37859797,0.2803742,0.3059426,-0.27033618,-0.11981566,-0.4487435,-0.20053813,-0.26508456,0.28222093,-0.21714847,0.13132481,0.21688017,-0.11658538,0.085359044,0.23401175,0.14124645,-0.005090289,0.23287088,-0.27727053,0.3051907,0.04163139,0.43171057,-0.28615615,0.16775455,0.2234571,0.22863623,0.09405766,0.2227434,0.39304227,0.171757,-0.35377213,-0.13119361,0.33508968,0.06375022,-0.16595516,0.25863054,0.011429169,0.31544718,-0.09955991,0.37970802,-0.14165829,0.29325244,0.17856948,-0.018637061,0.14301458,0.119745426,-0.1938737,-0.18968679,0.2575197,-0.12373861,-0.3579455,0.4612232,-0.15633824,-0.005665603,0.21651338,0.3598788,-0.41943023,-0.22146007,0.18257812,0.055736605,0.11076084,-0.0011049036,0.4951542,-0.12673917,-0.24537614,-0.09120367,0.08130467,0.055088345,-0.011349431,0.035472706,-0.33706677,0.32575226,0.07620166,0.27085516,-0.21199743,0.3741641,-0.08164579,0.34847173,-0.22332689,-0.4009697,0.08606724,0.48556337,0.07842419,0.4912374,0.26318467,0.40340924,-0.60529447,0.0793822,-0.015648227,0.24546596,-0.1487196,-0.13332002,0.11788244,0.17147069,0.05254069,0.110293284,0.40519792,-0.043593902,0.054019455,0.17589836,0.2252067,0.26908737,-0.39716902,0.49501285,0.27355906,0.26273268,0.3495335,0.039042972,-0.37291682,0.24573646,-0.11516433,0.27278835,0.21098055,-0.11331704,-0.41961908,0.31912297,0.060913555,0.3609459,-0.12103366,0.52431285,0.016915215,0.076933816,0.1348876,-0.029306948,0.106880255,0.12587741,0.16068603,0.19998087,0.12982564,0.06600071,0.21295354,-0.45525685,0.26394072,0.1705716,-0.10059661,0.14268036,0.3891709,-0.11992101,0.3296059,0.33792725,0.19834666,-0.48345056,-0.20047523,-0.48406848,0.009191166,-0.16115728,0.3881625,0.18757659,-0.12571703,-0.20496972,0.32094777,-0.2377578,-0.29273507,0.24183023,0.37016186,0.20899701,-0.09749968,0.29569793,-0.17229104,0.21489707,
-0.08919869,-0.28468663,-0.16901185,-0.6039561,-0.24588048,0.12737617,0.45705804,-0.42361873,0.58476686,-0.30054048,0.25326905,-0.31555015,0.4036639,0.30180436,-0.26541275,-0.22917254,-0.48985675,0.3537146,-0.28448406,-0.256134,0.15041885,-0.39425746,-0.034074888,0.027562233,-0.30081305,0.34667432,0.37583435,-0.1922238,-0.14839287,-0.2022524,-0.30527815,0.12196251,-0.4791376,0.055434037,0.36793515,-0.3165234,-0.48653165,0.15233715,0.305911,0.03446023,0.3054355,-0.4619272,-0.02600182,0.03425085,-0.4692415,-0.061620843,-0.2998908,0.031744625,0.19386719,0.34951136,-0.545725,0.22381659,-0.24588124,0.14806618,0.35813424,0.2135555,-0.59192,0.13634168,-0.2910383,0.13554564,-0.3607387,-0.42608497,-0.10752105,0.16211684,0.38246462,0.0330929,-0.49665767,0.045791954,0.09803951,0.33338532,-0.06659267,0.3447534,-0.13756055,0.4050828,-0.19610642,-0.63777226,-0.48904678,-0.037268896,-0.057565957,0.276824,0.38309678,-0.28755432,-0.43120852,0.06868219,0.13953851,0.24420813,0.24873474,0.0045564617,-0.4200633,-0.42701268,-0.19275664,-0.55417377,0.08692474,-0.4236552,0.24183752,-0.12620258,-0.33717102,0.0758473,0.23878546,0.2994856,-0.18442878,-0.24316548,-0.56186074,0.19986036,-0.52757645,0.43572795,0.013737805,-0.1574009,-0.48855463,0.20524727,-0.5916026,0.3554533,0.15127411,-0.51193345,-0.21476804,0.09123351,-0.21766941,0.5097153,-0.40412933,-0.5662796,-0.024428684,0.02313721,0.22226386,0.16819213,-0.459671,0.12214965,-0.19182464,-0.25171977,0.23087649,-0.25631455,-0.5016631,0.42729715,0.30951285,0.3302745,0.07970229,-0.4726561,-0.48093897,0.032710202,-0.43977153,-0.21721825,0.23702058,0.23651132,0.11489239,-0.12164287,-0.54005075,-0.14452422,0.37307146,-0.20780693,-0.2819436,-0.21444799,-0.3750247,0.0025194986,-0.28653258,0.32195634,-0.2987855,0.106297284,-0.43221816,0.23866299,0.17589985,0.019702477,-0.29736483,-0.5395851,-0.31013253,-0.35584602,0.21514817,0.40499288,-0.17144254,-0.27872282,-0.059991762,0.36300948,-0.052187905,0.28593698,-0.4545068,-0.2668805,-0.19911458,-0.84717685,-0.02424717,0.006038726,0.3816967,0.2918829,0.26433653,0.2616041,-0.113385014,-0.29643315,-0.41315204,0.047057014,-0.093559034,0.21949899,-0.3756664,0.32134488,-0.34558126,0.0058674375,0.37978968,-0.004283867,-0.38043928,-0.5312643,-0.5416617,0.36606333,0.27616018,-0.16456586,0.25509295,-0.34584346,-0.122388646,0.13781442,-0.25021097,0.22634923,0.17462116,-0.4589725,0.07764642,-0.1383781,0.22635165,-0.36380604,0.30700362,-0.004299111,-0.4528542,0.24861196,-0.16487351,-0.27534002,0.022638863,-0.13620973,0.45320943,-0.10799777,-0.10128667,-0.2749492,-0.46314263,-0.33077136,0.054369498,0.54465324,-0.33022478,-0.3590241,-0.4627389,0.28456768,0.20226161,-0.5757367,0.36303905,-0.069150746,0.30793968,-0.25798175,-0.0809009,-0.35324532,-0.4500254,-0.011054332,-0.20952691,0.22747785,-0.109299295,0.19756623,0.2706078,-0.56107724,0.29988793,-0.11525595,-0.17884119,-0.3169751,0.23476599,-0.24434604,0.3746552,-0.39846244,0.08566324,0.030181447,-0.50317234,0.16377947,-0.62129176,0.31880635,-0.27379903,0.20486926,-0.0642693,0.25454623,-0.14878996,-0.16740374,0.10441403,-0.25427803,-0.21318187,-0.33889243,0.18613687,-0.4340936,0.31877384,-0.34880242,0.22073606,0.11864598,-0.13384682,-0.034113903,0.2980308,0.0340284,0.4603403,-0.24788561,-0.20398834,-0.43224132,-0.1560199,-0.30136845,0.19145225,-0.17270851,-0.24474186,-0.48608303,0.26313868,-0.16717067,0.27130228,-0.2750461,0.26092318,0.1583836,-0.39364243,0.16880965,
