-0.57182854,0.70080537,-0.20848167,-0.09114849,-0.32553297,0.36063963,-0.21631694,-0.6431889,-0.37493804,-0.55191606,0.5415096,0.17123884,0.68789935,-0.5178372,-0.5678024,-0.7858058,0.4759388,-0.027036792,-0.54528725,0.9206021,-0.53586996,0.41470844,0.32331443,0.29318947,0.24108237,-0.5934182,-0.1699402,-0.09045921,0.50276446,0.0955971,-0.5059616,-0.43031284,0.745771,0.816167,0.23405124,-0.92999053,-0.67977303,-0.7390373,0.40760505,-0.0047939233,0.17970625,-0.8402554,0.65705097,0.06518753,0.7942738,0.16523583,0.4138775,-0.67543346,-0.026388304,-0.10978383,0.41125616,-0.09253672,-0.58486885,0.097648926,0.53839254,-0.15223397,-0.073361516,0.20380142,-0.796067,0.401069,0.77074796,-0.2997884,-0.3896238,0.1212723,-0.12425861,-0.3207357,-0.5062103,-0.06750905,-0.042326346,-0.6519122,0.4485236,-0.4435188,0.0890086,0.50196606,-0.5369483,0.19472538,-0.7751298,0.42426983,-0.89614093,0.15927821,-0.12497335,0.14479727,0.0385627,-0.37997937,-0.08755458,-0.21948785,0.29749504,0.26813686,-0.009325953,0.09854686,0.03450184,0.06628268,-0.67184645,0.33403483,0.19230945,-0.23926109,-0.12728831,0.0078122704,0.20764928,-0.06719267,
-0.27688944,-0.26678118,0.24690887,0.052046467,-0.4557066,-1.0123639,-0.9239505,0.79838985,-0.23289107,0.20173039,0.839167,-1.2725246,-0.11295629,-0.7775781,-0.6139682,-0.043448508,-0.10013183,0.0867559,-0.2274453,-0.36548176,-0.0935145,-1.2481731,-0.15391822,-0.45354712,0.7395124,-0.42872748,0.68264097,-0.36762363,-0.54410195,0.02812925,-0.2716095,-0.30201545,0.67467004,0.14174141,-0.6670326,-0.114647545,0.20972554,-0.7366218,-0.5311878,-0.3718544,-0.837194,0.5057304,0.58500177,-0.2475644,-0.71508944,-0.96467453,-0.21157795,0.05244861,0.6326775,-0.77991205,0.15764792,-0.8317775,-0.20502213,0.756708,-0.5072704,0.52576756,-0.3624559,-1.2722563,0.06737078,-0.43770313,-0.79217017,-0.5961145,-0.8566773,-0.14398356,0.39311892,0.4417219,-0.7626868,-0.53071284,0.40697214,0.7343567,-0.3716063,0.5751877,-0.9316915,0.42729837,-0.44680214,0.25874275,-0.6419897,0.40076783,-0.42792204,-0.23892398,-0.54305923,0.60696906,-0.12945344,-0.6385083,-0.3151564,0.16255854,0.57654953,-0.8949686,-0.025690058,-0.43340805,-0.8759877,-0.05699213,-0.38691312,-0.2826873,0.6299893,0.17905559,-1.039598,0.36483,-0.44437113,0.350485,
